<?xml version="1.0"?>
<opencv_storage>
<cascade>
  <stageType>BOOST</stageType>
  <featureType>HAAR</featureType>
  <height>24</height>
  <width>24</width>
  <stageParams>
    <boostType>GAB</boostType>
    <minHitRate>9.9500000476837158e-01</minHitRate>
    <maxFalseAlarm>5.0000000000000000e-01</maxFalseAlarm>
    <weightTrimRate>9.4999999999999996e-01</weightTrimRate>
    <maxDepth>1</maxDepth>
    <maxWeakCount>100</maxWeakCount></stageParams>
  <featureParams>
    <maxCatCount>0</maxCatCount>
    <featSize>1</featSize>
    <mode>BASIC</mode></featureParams>
  <stageNum>10</stageNum>
  <stages>
    <!-- stage 0 -->
    <_>
      <maxWeakCount>1</maxWeakCount>
      <stageThreshold>8.8679248094558716e-01</stageThreshold>
      <weakClassifiers>
        <_>
          <internalNodes>
            0 -1 4 1.0478699207305908e-01</internalNodes>
          <leafValues>
            -1. 8.8679248094558716e-01</leafValues></_></weakClassifiers></_>
    <!-- stage 1 -->
    <_>
      <maxWeakCount>2</maxWeakCount>
      <stageThreshold>6.4516127109527588e-02</stageThreshold>
      <weakClassifiers>
        <_>
          <internalNodes>
            0 -1 1 -3.2496478408575058e-02</internalNodes>
          <leafValues>
            1. -9.3548387289047241e-01</leafValues></_>
        <_>
          <internalNodes>
            0 -1 3 -2.2557199001312256e-02</internalNodes>
          <leafValues>
            1. -9.1044586896896362e-01</leafValues></_></weakClassifiers></_>
    <!-- stage 2 -->
    <_>
      <maxWeakCount>2</maxWeakCount>
      <stageThreshold>5.7831730693578720e-02</stageThreshold>
      <weakClassifiers>
        <_>
          <internalNodes>
            0 -1 11 3.4552651923149824e-03</internalNodes>
          <leafValues>
            -8.1818181276321411e-01 1.</leafValues></_>
        <_>
          <internalNodes>
            0 -1 2 1.6535326838493347e-02</internalNodes>
          <leafValues>
            -9.4216829538345337e-01 8.8544648885726929e-01</leafValues></_></weakClassifiers></_>
    <!-- stage 3 -->
    <_>
      <maxWeakCount>2</maxWeakCount>
      <stageThreshold>-3.4595841169357300e-01</stageThreshold>
      <weakClassifiers>
        <_>
          <internalNodes>
            0 -1 14 2.1732345223426819e-02</internalNodes>
          <leafValues>
            -9.2592591047286987e-01 7.1428573131561279e-01</leafValues></_>
        <_>
          <internalNodes>
            0 -1 6 5.0746621127473190e-05</internalNodes>
          <leafValues>
            5.7996749877929688e-01 -1.</leafValues></_></weakClassifiers></_>
    <!-- stage 4 -->
    <_>
      <maxWeakCount>2</maxWeakCount>
      <stageThreshold>1.4321453869342804e-01</stageThreshold>
      <weakClassifiers>
        <_>
          <internalNodes>
            0 -1 7 7.9913511872291565e-03</internalNodes>
          <leafValues>
            -8.3606559038162231e-01 8.3673471212387085e-01</leafValues></_>
        <_>
          <internalNodes>
            0 -1 5 -1.3407675549387932e-02</internalNodes>
          <leafValues>
            1. -6.9352012872695923e-01</leafValues></_></weakClassifiers></_>
    <!-- stage 5 -->
    <_>
      <maxWeakCount>2</maxWeakCount>
      <stageThreshold>-1.0741938650608063e-01</stageThreshold>
      <weakClassifiers>
        <_>
          <internalNodes>
            0 -1 12 9.5629468560218811e-03</internalNodes>
          <leafValues>
            -7.8125000000000000e-01 8.6956518888473511e-01</leafValues></_>
        <_>
          <internalNodes>
            0 -1 0 1.2182885780930519e-02</internalNodes>
          <leafValues>
            -9.6925324201583862e-01 6.7383062839508057e-01</leafValues></_></weakClassifiers></_>
    <!-- stage 6 -->
    <_>
      <maxWeakCount>1</maxWeakCount>
      <stageThreshold>6.9491523504257202e-01</stageThreshold>
      <weakClassifiers>
        <_>
          <internalNodes>
            0 -1 8 5.9570527810137719e-05</internalNodes>
          <leafValues>
            6.9491523504257202e-01 -1.</leafValues></_></weakClassifiers></_>
    <!-- stage 7 -->
    <_>
      <maxWeakCount>2</maxWeakCount>
      <stageThreshold>-1.9725295901298523e-01</stageThreshold>
      <weakClassifiers>
        <_>
          <internalNodes>
            0 -1 8 -1.3442649105854798e-05</internalNodes>
          <leafValues>
            -9.3103450536727905e-01 8.4615385532379150e-01</leafValues></_>
        <_>
          <internalNodes>
            0 -1 9 -4.6928569645388052e-05</internalNodes>
          <leafValues>
            -1. 7.3378151655197144e-01</leafValues></_></weakClassifiers></_>
    <!-- stage 8 -->
    <_>
      <maxWeakCount>1</maxWeakCount>
      <stageThreshold>6.3934427499771118e-01</stageThreshold>
      <weakClassifiers>
        <_>
          <internalNodes>
            0 -1 9 2.2496162273455411e-05</internalNodes>
          <leafValues>
            6.3934427499771118e-01 -1.</leafValues></_></weakClassifiers></_>
    <!-- stage 9 -->
    <_>
      <maxWeakCount>2</maxWeakCount>
      <stageThreshold>-6.5675400197505951e-02</stageThreshold>
      <weakClassifiers>
        <_>
          <internalNodes>
            0 -1 13 -5.4083354771137238e-03</internalNodes>
          <leafValues>
            1. -8.4615385532379150e-01</leafValues></_>
        <_>
          <internalNodes>
            0 -1 10 2.5382942112628371e-05</internalNodes>
          <leafValues>
            -9.6755784749984741e-01 7.8047841787338257e-01</leafValues></_></weakClassifiers></_></stages>
  <features>
    <_>
      <rects>
        <_>
          1 15 8 8 -1.</_>
        <_>
          1 19 8 4 2.</_></rects>
      <tilted>0</tilted></_>
    <_>
      <rects>
        <_>
          2 6 8 8 -1.</_>
        <_>
          2 6 4 4 2.</_>
        <_>
          6 10 4 4 2.</_></rects>
      <tilted>0</tilted></_>
    <_>
      <rects>
        <_>
          3 8 6 6 -1.</_>
        <_>
          5 8 2 6 3.</_></rects>
      <tilted>0</tilted></_>
    <_>
      <rects>
        <_>
          5 9 6 6 -1.</_>
        <_>
          7 9 2 6 3.</_></rects>
      <tilted>0</tilted></_>
    <_>
      <rects>
        <_>
          6 5 15 13 -1.</_>
        <_>
          11 5 5 13 3.</_></rects>
      <tilted>0</tilted></_>
    <_>
      <rects>
        <_>
          6 11 3 3 -1.</_>
        <_>
          7 11 1 3 3.</_></rects>
      <tilted>0</tilted></_>
    <_>
      <rects>
        <_>
          7 8 6 1 -1.</_>
        <_>
          10 8 3 1 2.</_></rects>
      <tilted>0</tilted></_>
    <_>
      <rects>
        <_>
          9 2 1 8 -1.</_>
        <_>
          9 6 1 4 2.</_></rects>
      <tilted>0</tilted></_>
    <_>
      <rects>
        <_>
          12 6 3 5 -1.</_>
        <_>
          13 6 1 5 3.</_></rects>
      <tilted>0</tilted></_>
    <_>
      <rects>
        <_>
          12 7 2 3 -1.</_>
        <_>
          13 7 1 3 2.</_></rects>
      <tilted>0</tilted></_>
    <_>
      <rects>
        <_>
          13 13 5 9 -1.</_>
        <_>
          13 16 5 3 3.</_></rects>
      <tilted>0</tilted></_>
    <_>
      <rects>
        <_>
          18 5 3 8 -1.</_>
        <_>
          19 5 1 8 3.</_></rects>
      <tilted>0</tilted></_>
    <_>
      <rects>
        <_>
          18 9 3 5 -1.</_>
        <_>
          19 9 1 5 3.</_></rects>
      <tilted>0</tilted></_>
    <_>
      <rects>
        <_>
          19 9 2 6 -1.</_>
        <_>
          20 9 1 6 2.</_></rects>
      <tilted>0</tilted></_>
    <_>
      <rects>
        <_>
          21 3 2 20 -1.</_>
        <_>
          21 13 2 10 2.</_></rects>
      <tilted>0</tilted></_></features></cascade>
</opencv_storage>
